5.331426225859675,0.2818774463145125,0.243659021414197,-0.2674720439969732,-2.335220214087313,0.40255105999570173,0.798272411087739,-17.66108688994629,0.2274021104324667,0.36140286779683783,0.31087081574259123,0.19871173459104965,-4.155896940589198,0.3608306404919097,0.10342531466779131,-0.3617821385940232,-0.0013849969761763458,0.38556687862818867,0.10921023805547786,-2.819005332239479,0.5770597315281991
-0.09625561441741706,-0.032893996296430306,-0.060546017053579496,0.1600730342659006,-0.1346420697010272,0.07704656913815143,-0.5612316605996022,-1.6815679517168618,-0.058273685611885666,0.0004065203022090913,-0.00430437756814784,0.09105152063678335,-0.2967246562218542,0.16649540401143073,0.4128984411618943,0.2246979688820268,0.0011428177185931474,-0.11232988175070967,0.2934168741957367,0.1276376315400512,-0.010773186840573025
-0.4153839575496276,-0.014486068059350642,-0.008962928837325504,-0.21680490074286002,-0.09514797361644783,-0.17355246026744944,0.06634997255570776,1.5917927920181527,-0.12405710096392661,-0.10812951818704958,-0.17353211351152478,-0.2685371769114579,-0.173618435539892,-0.1350827782219823,-0.05694573303793455,0.08030582313834467,-0.008940238918696154,-0.1417076018955317,-0.22331702914248583,-0.2122912430643848,0.31379077458698457
-13.798621801971581,-0.1056762479826408,-0.16499046794426345,0.022185918132286077,2.606333112257701,-0.18135703577835338,-0.14162376814896502,15.991116311607595,-0.0010586732002049117,-0.12225757488046249,0.20273414585695798,0.25969118978391864,4.09383227347235,-0.014480812536314456,-0.3950893179124194,-0.29292736994372054,0.007248980367232847,-0.35813847561469697,0.007222051647012821,2.495314206859835,-1.6349354026691416
